digraph Tree {
0 [label="V4021B <= 8.5000\ngini = 0.511238154906\nsamples = 113", shape="box"] ;
1 [label="V4287 <= 5.0000\ngini = 0.424155124654\nsamples = 95", shape="box"] ;
0 -> 1 ;
2 [label="V4048 <= 1.5000\ngini = 0.36965029668\nsamples = 89", shape="box"] ;
1 -> 2 ;
3 [label="V4021B <= 7.5000\ngini = 0.23434560602\nsamples = 61", shape="box"] ;
2 -> 3 ;
4 [label="V4017 <= 5.0000\ngini = 0.187302499282\nsamples = 59", shape="box"] ;
3 -> 4 ;
5 [label="V4287 <= 1.5000\ngini = 0.161117717004\nsamples = 58", shape="box"] ;
4 -> 5 ;
6 [label="V4014 <= 11.0000\ngini = 0.56\nsamples = 10", shape="box"] ;
5 -> 6 ;
7 [label="V4247 <= 1.5000\ngini = 0.375\nsamples = 8", shape="box"] ;
6 -> 7 ;
8 [label="gini = 0.0000\nsamples = 2\nvalue = [ 0.  0.  2.]", shape="box"] ;
7 -> 8 ;
9 [label="gini = 0.0000\nsamples = 6\nvalue = [ 6.  0.  0.]", shape="box"] ;
7 -> 9 ;
10 [label="gini = 0.0000\nsamples = 2\nvalue = [ 0.  2.  0.]", shape="box"] ;
6 -> 10 ;
11 [label="V4023 <= 1.5000\ngini = 0.0407986111111\nsamples = 48", shape="box"] ;
5 -> 11 ;
12 [label="V4483 <= 5.5000\ngini = 0.375\nsamples = 4", shape="box"] ;
11 -> 12 ;
13 [label="gini = 0.0000\nsamples = 1\nvalue = [ 0.  1.  0.]", shape="box"] ;
12 -> 13 ;
14 [label="gini = 0.0000\nsamples = 3\nvalue = [ 3.  0.  0.]", shape="box"] ;
12 -> 14 ;
15 [label="gini = 0.0000\nsamples = 44\nvalue = [ 44.   0.   0.]", shape="box"] ;
11 -> 15 ;
16 [label="gini = 0.0000\nsamples = 1\nvalue = [ 0.  1.  0.]", shape="box"] ;
4 -> 16 ;
17 [label="gini = 0.0000\nsamples = 2\nvalue = [ 0.  2.  0.]", shape="box"] ;
3 -> 17 ;
18 [label="V4484 <= 8.5000\ngini = 0.489795918367\nsamples = 28", shape="box"] ;
2 -> 18 ;
19 [label="gini = 0.0000\nsamples = 4\nvalue = [ 0.  0.  4.]", shape="box"] ;
18 -> 19 ;
20 [label="V4016 <= 1.5000\ngini = 0.444444444444\nsamples = 24", shape="box"] ;
18 -> 20 ;
21 [label="V4021B <= 6.5000\ngini = 0.493827160494\nsamples = 18", shape="box"] ;
20 -> 21 ;
22 [label="V4023 <= 5.5000\ngini = 0.5\nsamples = 16", shape="box"] ;
21 -> 22 ;
23 [label="V4014 <= 10.0000\ngini = 0.375\nsamples = 4", shape="box"] ;
22 -> 23 ;
24 [label="gini = 0.0000\nsamples = 3\nvalue = [ 3.  0.  0.]", shape="box"] ;
23 -> 24 ;
25 [label="gini = 0.0000\nsamples = 1\nvalue = [ 0.  0.  1.]", shape="box"] ;
23 -> 25 ;
26 [label="V4014 <= 10.5000\ngini = 0.486111111111\nsamples = 12", shape="box"] ;
22 -> 26 ;
27 [label="V4077 <= 6.0000\ngini = 0.375\nsamples = 8", shape="box"] ;
26 -> 27 ;
28 [label="gini = 0.0000\nsamples = 1\nvalue = [ 1.  0.  0.]", shape="box"] ;
27 -> 28 ;
29 [label="V4480 <= 6.5000\ngini = 0.244897959184\nsamples = 7", shape="box"] ;
27 -> 29 ;
30 [label="V4480 <= 4.0000\ngini = 0.444444444444\nsamples = 3", shape="box"] ;
29 -> 30 ;
31 [label="gini = 0.0000\nsamples = 2\nvalue = [ 0.  0.  2.]", shape="box"] ;
30 -> 31 ;
32 [label="gini = 0.0000\nsamples = 1\nvalue = [ 1.  0.  0.]", shape="box"] ;
30 -> 32 ;
33 [label="gini = 0.0000\nsamples = 4\nvalue = [ 0.  0.  4.]", shape="box"] ;
29 -> 33 ;
34 [label="V4021B <= 2.5000\ngini = 0.375\nsamples = 4", shape="box"] ;
26 -> 34 ;
35 [label="gini = 0.0000\nsamples = 3\nvalue = [ 3.  0.  0.]", shape="box"] ;
34 -> 35 ;
36 [label="gini = 0.0000\nsamples = 1\nvalue = [ 0.  0.  1.]", shape="box"] ;
34 -> 36 ;
37 [label="gini = 0.0000\nsamples = 2\nvalue = [ 2.  0.  0.]", shape="box"] ;
21 -> 37 ;
38 [label="gini = 0.0000\nsamples = 6\nvalue = [ 6.  0.  0.]", shape="box"] ;
20 -> 38 ;
39 [label="gini = 0.0000\nsamples = 6\nvalue = [ 0.  0.  6.]", shape="box"] ;
1 -> 39 ;
40 [label="gini = 0.0000\nsamples = 18\nvalue = [  0.   0.  18.]", shape="box"] ;
0 -> 40 ;
}